tree
version=v4
num_class=1
num_tree_per_iteration=1
label_index=0
max_feature_idx=18
objective=binary sigmoid:1
feature_names=Column_0 Column_1 Column_2 Column_3 Column_4 Column_5 Column_6 Column_7 Column_8 Column_9 Column_10 Column_11 Column_12 Column_13 Column_14 Column_15 Column_16 Column_17 Column_18
feature_infos=[0:1] [0:1] [0:1] [0:1] [0:1] [0:2] [0:2] [0:2] [0:2] [0:2] [0:2] [0:2] [0:2] [0:2] [0:1] [0:3] [0:2] [0:2] [0:2]
tree_sizes=1492 963 830 1301 754 1050 1316 1233 1198 946 719 837 1126 567 1019 1231 829 1114 730 818 896 928 740 756 651 897 819 909 630 634 723 1000 803 528 548 805

Tree=0
num_leaves=13
num_cat=0
split_feature=7 15 9 8 9 3 15 3 8 2 17 8
split_gain=563.54 153.446 27.6374 24.6588 12.5092 10.4237 7.59274 5.64497 2.46328 0.517044 0.334928 0.55569
threshold=1.0000000180025095e-35 1.5000000000000002 1.0000000180025095e-35 1.5000000000000002 1.5000000000000002 1.0000000180025095e-35 2.5000000000000004 1.0000000180025095e-35 1.5000000000000002 1.0000000180025095e-35 1.0000000180025095e-35 1.5000000000000002
decision_type=2 2 2 2 2 2 2 2 2 2 2 2
left_child=1 4 7 6 8 -5 -3 10 -1 -6 -2 -12
right_child=2 3 -4 5 9 -7 -8 -9 -10 -11 11 -13
leaf_value=-0.94525821257094289 -1.0189412591255942 -0.70327706568279358 -1.1984241467440249 -0.87603034704493643 -1.0189412591255942 -1.0189412591255942 -0.9053862933106408 -1.1208313647432169 -1.0189412591255942 -1.0938612770820169 -1.0189412591255942 -1.054367263306335
leaf_weight=53.983083248138428 24.94525146484375 162.72878885269165 369.50153732299805 79.318104267120361 33.520181655883789 25.919675350189209 52.03423547744751 41.510457515716553 35.858798980712891 48.331424713134766 37.222992420196533 23.386173248291016
leaf_count=277 128 835 1896 407 172 133 267 213 184 248 191 120
internal_value=-1.01894 -0.867937 -1.16848 -0.787135 -1.01894 -0.910133 -0.739629 -1.06306 -0.970593 -1.07559 -1.01894 -1.03323
internal_weight=0 491.694 496.566 320.001 171.693 105.238 214.763 127.065 89.8419 81.8516 85.5544 60.6092
internal_count=5071 2523 2548 1642 881 540 1102 652 461 420 439 311
is_linear=0
shrinkage=1


Tree=1
num_leaves=8
num_cat=0
split_feature=10 6 18 18 2 14 14
split_gain=424.241 119.029 73.1428 98.8116 11.0451 3.35427 2.26422
threshold=1.0000000180025095e-35 1.0000000180025095e-35 1.5000000000000002 1.0000000180025095e-35 1.0000000180025095e-35 1.0000000180025095e-35 1.0000000180025095e-35
decision_type=2 2 2 2 2 2 2
left_child=1 4 3 -3 6 -2 -1
right_child=5 2 -4 -5 -6 -7 -8
leaf_value=0 -0.16725641490554891 -0.00036781115397667777 0.007764622301499398 0.30617072254415434 -0.06415957920858037 -0.089973110238652704 0.055826204339758101
leaf_weight=39.297884061932564 242.27944631874561 36.788069382309914 82.047666311264038 206.57811179757118 70.238788843154907 240.4371539503336 66.442776665091515
leaf_count=196 1323 192 413 984 363 1272 328
internal_value=0 0.127247 0.198053 0.252867 0 -0.134098 0.0345364
internal_weight=0 501.393 325.414 243.366 175.979 482.717 105.741
internal_count=5071 2476 1589 1176 887 2595 524
is_linear=0
shrinkage=0.2


Tree=2
num_leaves=7
num_cat=0
split_feature=13 10 6 15 11 6
split_gain=530.027 60.1121 32.4065 3.05568 2.38664 0.102179
threshold=1.0000000180025095e-35 1.0000000180025095e-35 1.0000000180025095e-35 1.0000000180025095e-35 1.5000000000000002 1.5000000000000002
decision_type=2 2 2 2 2 2
left_child=1 2 3 -1 5 -3
right_child=-2 4 -4 -5 -6 -7
leaf_value=0 -0.17547896155602291 0 0.20207578694680081 0.064392445944908477 0.045603768163386044 -0.0078050211157829549
leaf_weight=18.165523514151573 406.43856455385685 52.56436912715435 286.1645909100771 106.88246543705463 41.534381374716759 62.092462211847305
leaf_count=94 2307 278 1276 523 216 377
internal_value=0 0.122087 0.162088 0.0512576 0.00285329 0
internal_weight=0 567.404 411.213 125.048 156.191 114.657
internal_count=5071 2764 1893 617 871 655
is_linear=0
shrinkage=0.2


Tree=3
num_leaves=12
num_cat=0
split_feature=10 15 6 1 6 9 15 15 3 15 15
split_gain=193.028 46.5445 22.5988 8.71212 2.95205 2.51274 2.21668 1.03674 0.877763 0.660314 0.117824
threshold=1.0000000180025095e-35 1.5000000000000002 1.0000000180025095e-35 1.0000000180025095e-35 1.0000000180025095e-35 1.0000000180025095e-35 1.5000000000000002 1.0000000180025095e-35 1.0000000180025095e-35 2.5000000000000004 2.5000000000000004
decision_type=2 2 2 2 2 2 2 2 2 2 2
left_child=1 4 8 5 -1 6 -2 -6 9 -3 -8
right_child=3 2 -4 -5 7 -7 10 -9 -10 -11 -12
leaf_value=-0.039773889589522854 -0.071494233282433442 0.042715961816455345 0.15199903092369227 0 0.02901740714746184 -0.12828257353020767 0 0 0 0 -0.012557765159240585
leaf_weight=63.432558655738831 47.847012490034103 50.707184985280037 252.54744298756123 37.720491781830788 55.918427050113678 284.49662977457047 27.876661762595177 48.755689829587936 26.903062626719475 32.734950944781303 24.886125296354294
leaf_count=347 278 239 1084 221 269 1813 144 236 139 162 139
internal_value=0 0.0775643 0.117584 -0.102519 0 -0.111444 -0.0414509 0.00946458 0.0186508 0.029166 0
internal_weight=0 530.999 362.893 422.827 168.107 385.106 100.61 104.674 110.345 83.4421 52.7628
internal_count=5071 2476 1624 2595 852 2374 561 505 540 401 283
is_linear=0
shrinkage=0.2


Tree=4
num_leaves=6
num_cat=0
split_feature=7 18 18 17 3
split_gain=175.61 35.8056 19.3505 4.92764 1.52235
threshold=1.0000000180025095e-35 1.5000000000000002 1.0000000180025095e-35 1.0000000180025095e-35 1.0000000180025095e-35
decision_type=2 2 2 2 2
left_child=1 2 -1 -2 -4
right_child=3 -3 4 -5 -6
leaf_value=0 -0.028319974687816232 -0.015007966492437689 0.12400676868183907 -0.11932814960595706 0.028134864095696838
leaf_weight=41.174214705824852 97.6226666867733 110.56883224844933 317.62646207213402 301.29322972893715 68.405527025461197
leaf_count=226 580 565 1407 1968 325
internal_value=0 0.0715443 0.098395 -0.102535 0.112607
internal_weight=0 537.775 427.206 398.916 386.032
internal_count=5071 2523 1958 2548 1732
is_linear=0
shrinkage=0.2


Tree=5
num_leaves=9
num_cat=0
split_feature=16 16 8 1 8 12 11 5
split_gain=131.277 62.8256 19.947 16.9757 8.55425 6.42894 2.15609 0.721774
threshold=1.0000000180025095e-35 1.5000000000000002 1.0000000180025095e-35 1.0000000180025095e-35 1.5000000000000002 1.5000000000000002 1.5000000000000002 1.5000000000000002
decision_type=2 2 2 2 2 2 2 2
left_child=6 2 -2 5 -4 -3 -1 -7
right_child=1 3 4 -5 -6 7 -8 -9
leaf_value=-0.17010044227438542 0.11802751189068693 -0.1091224678596836 -0.019084992087591568 0.040681494570557121 0.060324992226329512 -0.028336009623893585 -0.072495154949876017 0
leaf_weight=107.49184641242027 295.96291437745094 96.7386364787817 71.284131288528442 44.132112666964531 90.418437540531158 30.957035794854164 149.66330328583717 34.974155351519585
leaf_count=731 1315 591 528 206 427 174 917 182
internal_value=0 0.043574 0.0860711 -0.0410324 0.0140384 -0.075443 -0.123237 0
internal_weight=0 664.467 457.665 206.802 161.703 162.67 257.155 65.9312
internal_count=5071 3423 2270 1153 955 947 1648 356
is_linear=0
shrinkage=0.2


Tree=6
num_leaves=12
num_cat=0
split_feature=16 14 6 6 16 17 16 17 10 10 17
split_gain=92.6605 53.2386 26.6613 20.2573 13.2348 7.59457 6.35546 3.99225 1.77704 1.52972 0.341981
threshold=1.0000000180025095e-35 1.0000000180025095e-35 1.0000000180025095e-35 1.5000000000000002 1.5000000000000002 1.0000000180025095e-35 1.5000000000000002 1.5000000000000002 1.0000000180025095e-35 1.5000000000000002 1.0000000180025095e-35
decision_type=2 2 2 2 2 2 2 2 2 2 2
left_child=5 4 6 -4 8 9 7 -3 -2 -1 -6
right_child=1 2 3 -5 10 -7 -8 -9 -10 -11 -12
leaf_value=0 0.014654725438971245 0.063509755950563296 0.12789336156775297 0 0 -0.15429562721212794 -0.062461139269847143 0 -0.025713769057773391 -0.06805951365167863 -0.11848926746161398
leaf_weight=60.398111313581467 87.759791985154152 56.38079971075058 269.15831950306892 31.596877083182335 15.443041786551474 119.99143243581057 37.633369088172913 38.951349809765816 72.375381320714951 59.753677666187286 56.512942098081112
leaf_count=324 385 255 1167 234 78 906 217 196 501 418 390
internal_value=0 0.0345034 0.0770948 0.109619 -0.0367698 -0.108965 0 0.0295969 0 -0.0436776 -0.105093
internal_weight=0 665.812 433.721 300.755 232.091 240.143 132.966 95.3321 160.135 120.152 71.956
internal_count=5071 3423 2069 1401 1354 1648 668 451 886 742 468
is_linear=0
shrinkage=0.2


Tree=7
num_leaves=11
num_cat=0
split_feature=16 16 6 6 12 8 6 11 3 3
split_gain=65.3809 32.7646 17.01 16.9729 9.08434 3.63288 2.17587 1.87081 1.17602 0.154347
threshold=1.0000000180025095e-35 1.5000000000000002 1.5000000000000002 1.0000000180025095e-35 1.5000000000000002 1.5000000000000002 1.0000000180025095e-35 1.5000000000000002 1.0000000180025095e-35 1.0000000180025095e-35
decision_type=2 2 2 2 2 2 2 2 2 2
left_child=7 2 3 8 5 -3 -6 -1 -2 -4
right_child=1 4 9 -5 6 -7 -8 -9 -10 -11
leaf_value=-0.14240089153157359 0.021916701673129348 -0.1011775416916952 0 0.10901193797812843 -0.029893649080953516 0 0.028753235860943333 -0.050339881695953194 0 -0.025014759296005225
leaf_weight=88.195163793861866 120.79490415751934 69.827635630965233 45.459290198981762 233.75005121529102 26.940529033541679 37.127626560628414 65.748962253332138 137.39804682135582 40.610480740666389 24.07853714376688
leaf_count=731 562 468 341 965 171 207 307 917 215 187
internal_value=0 0.0259298 0.0565738 0.0736688 -0.0354594 -0.0744585 0 -0.0971381 0.00896819 -0.0126997
internal_weight=0 664.338 464.693 395.155 199.645 106.955 92.6895 225.593 161.405 69.5378
internal_count=5071 3423 2270 1742 1153 675 478 1648 777 528
is_linear=0
shrinkage=0.2


Tree=8
num_leaves=11
num_cat=0
split_feature=15 15 9 3 18 1 2 1 2 1
split_gain=28.9215 26.4795 10.809 6.52148 3.95932 3.67303 0.737053 0.491142 0.115875 1.58312
threshold=1.5000000000000002 2.5000000000000004 1.0000000180025095e-35 1.0000000180025095e-35 1.0000000180025095e-35 1.0000000180025095e-35 1.0000000180025095e-35 1.0000000180025095e-35 1.0000000180025095e-35 1.0000000180025095e-35
decision_type=2 2 2 2 2 2 2 2 2 2
left_child=2 3 8 4 -2 6 -3 -4 -1 -10
right_child=1 5 7 -5 -6 -7 -8 -9 9 -11
leaf_value=0 0 -0.0090678407862435449 -0.091463164983594317 0 0.073845021021321539 0 -0.077427114641642703 0 -0.034719033941111359 0
leaf_weight=75.835955604910851 21.030546344816685 110.73528388887644 158.83072537183762 68.452744781970978 273.59758391976357 14.297727540135382 58.352620869874954 26.859898865222931 51.379020228981972 14.127892024815081
leaf_count=382 123 659 1242 360 1238 70 428 174 321 74
internal_value=0 0.0214493 -0.0525961 0.0546666 0.0673927 -0.0336181 -0.0454637 -0.0841674 0 -0.00810793
internal_weight=0 546.467 327.033 363.081 294.628 183.386 169.088 185.691 141.343 65.5069
internal_count=5071 2878 2193 1721 1361 1157 1087 1416 777 395
is_linear=0
shrinkage=0.2


Tree=9
num_leaves=8
num_cat=0
split_feature=16 14 6 6 16 8 16
split_gain=40.1403 26.8506 11.6017 8.52039 6.10506 3.03964 2.84053
threshold=1.0000000180025095e-35 1.0000000180025095e-35 1.0000000180025095e-35 1.5000000000000002 1.5000000000000002 1.0000000180025095e-35 1.5000000000000002
decision_type=2 2 2 2 2 2 2
left_child=-1 4 6 -4 5 -2 -3
right_child=1 2 3 -5 -6 -7 -8
leaf_value=-0.081300942442972021 0.013207866974886368 0.017069248508827718 0.081881812038030119 0 -0.084101792167528999 -0.037095466174094247 -0.045675349685339241
leaf_weight=207.71599353849888 85.784112900495529 96.735314682126045 270.1602573543787 30.029486157000065 64.522162787616253 71.847959525883198 35.25422427803278
leaf_count=1648 389 451 1167 234 468 497 217
internal_value=0 0.0179939 0.048773 0.0702011 -0.033011 0 0
internal_weight=0 654.334 432.179 300.19 222.154 157.632 131.99
internal_count=5071 3423 2069 1401 1354 886 668
is_linear=0
shrinkage=0.2


Tree=10
num_leaves=6
num_cat=0
split_feature=7 10 1 18 1
split_gain=42.6176 8.26159 6.09381 2.11393 0.365536
threshold=1.0000000180025095e-35 1.5000000000000002 1.0000000180025095e-35 1.5000000000000002 1.0000000180025095e-35
decision_type=2 2 2 2 2
left_child=1 3 -2 -1 -3
right_child=2 4 -4 -5 -6
leaf_value=0.049829777934386907 -0.07286445049490646 -0.012434846494461476 0 0 0
leaf_weight=336.5982970520854 282.36629668623209 103.05230708420277 38.122303865849972 67.700608782470226 18.796713188290596
leaf_count=1480 2307 604 241 339 100
internal_value=0 0.0286263 -0.0627576 0.0431939 -0.00405541
internal_weight=0 526.148 320.489 404.299 121.849
internal_count=5071 2523 2548 1819 704
is_linear=0
shrinkage=0.2


Tree=11
num_leaves=7
num_cat=0
split_feature=13 17 6 13 11 17
split_gain=111.233 9.24547 6.5376 5.67227 1.4224 0.680117
threshold=1.0000000180025095e-35 1.0000000180025095e-35 1.0000000180025095e-35 1.5000000000000002 1.5000000000000002 1.5000000000000002
decision_type=2 2 2 2 2 2
left_child=2 3 5 -2 -4 -1
right_child=1 -3 4 -5 -6 -7
leaf_value=0.01538663521234046 0 -0.14534918145176484 0.031272541047419881 -0.080885784257326551 0.086619037179008151 0
leaf_weight=110.15305669605732 55.786529913544655 163.7386446595192 228.99075178802013 46.713787421584129 160.12376879900694 67.829834826290607
leaf_count=512 357 1569 1180 381 706 366
internal_value=0 -0.110409 0.0448229 -0.0321981 0.0598312 0.00056122
internal_weight=0 266.239 567.097 102.5 389.115 177.983
internal_count=5071 2307 2764 738 1886 878
is_linear=0
shrinkage=0.2


Tree=12
num_leaves=10
num_cat=0
split_feature=16 16 14 5 15 15 8 6 0
split_gain=16.9934 12.7366 8.35237 5.23846 1.05718 1.67079 0.790223 0.304243 0.0723674
threshold=1.0000000180025095e-35 1.5000000000000002 1.0000000180025095e-35 1.5000000000000002 2.5000000000000004 1.5000000000000002 1.0000000180025095e-35 1.0000000180025095e-35 1.0000000180025095e-35
decision_type=2 2 2 2 2 2 2 2 2
left_child=-1 2 6 -3 5 -4 -2 -5 -9
right_child=1 3 4 7 -6 -7 -8 8 -10
leaf_value=-0.056756138817208958 0.0038538673347297669 -0.060623305902844177 0 -0.012268754812564632 0 0.072649416927992219 -0.020572045449036541 0.016636479423157408 0
leaf_weight=182.84816365689039 85.072359979152679 90.635469071567059 68.53980316221714 16.266109764575958 64.63111961632967 163.3757021650672 66.527590297162533 37.863408543169498 40.352772556245327
leaf_count=1648 389 638 334 119 329 721 497 195 201
internal_value=0 0.0110503 0.0313535 -0.0273238 0.0508449 0.0588977 0 0 0.0103815
internal_weight=0 633.264 448.147 185.118 296.547 231.916 151.6 94.4823 78.2162
internal_count=5071 3423 2270 1153 1384 1055 886 515 396
is_linear=0
shrinkage=0.2


Tree=13
num_leaves=4
num_cat=0
split_feature=13 13 14
split_gain=69.8277 5.34129 1.36447
threshold=1.0000000180025095e-35 1.5000000000000002 1.0000000180025095e-35
decision_type=2 2 2
left_child=2 -2 -1
right_child=1 -3 -4
leaf_value=0.0028777674990216246 -0.036916604036333546 -0.13487858007638473 0.042872473767492064
leaf_weight=162.32417652010918 127.25994503870606 112.16363874450326 402.48501555621624
leaf_count=880 1044 1263 1884
internal_value=0 -0.0926484 0.034944
internal_weight=0 239.424 564.809
internal_count=5071 2307 2764
is_linear=0
shrinkage=0.2


Tree=14
num_leaves=9
num_cat=0
split_feature=14 6 11 2 16 5 6 16
split_gain=9.02686 5.63012 4.23942 2.33055 1.62877 0.741482 0.555477 0.0368429
threshold=1.0000000180025095e-35 1.0000000180025095e-35 1.5000000000000002 1.0000000180025095e-35 1.0000000180025095e-35 1.5000000000000002 1.5000000000000002 1.5000000000000002
decision_type=2 2 2 2 2 2 2 2
left_child=-1 3 4 7 -3 -4 -6 -2
right_child=1 2 5 -5 6 -7 -8 -9
leaf_value=-0.033245096385770265 0.004128594305584622 -0.039810825129651978 0 -0.041927175940182103 0.017996587530762817 0.05897376343541591 0 0
leaf_weight=257.02826473861933 81.458915743976831 21.920888312160969 59.958842061460018 61.549782369285822 133.02400414645672 130.85587341338396 27.852411530911922 17.989947348833084
leaf_count=2010 418 219 299 475 584 717 234 115
internal_value=0 0.0115366 0.0268651 -0.0119652 0 0.0475552 0.0116424 0
internal_weight=0 534.611 373.612 160.999 182.797 190.815 160.876 99.4489
internal_count=5071 3061 2053 1008 1037 1016 818 533
is_linear=0
shrinkage=0.2


Tree=15
num_leaves=11
num_cat=0
split_feature=10 16 16 11 16 16 12 11 12 14
split_gain=7.94307 4.83181 3.11381 1.6492 1.41435 1.37992 1.13823 0.313642 0.0450807 0.0436343
threshold=1.0000000180025095e-35 1.0000000180025095e-35 1.5000000000000002 1.5000000000000002 1.5000000000000002 1.0000000180025095e-35 1.5000000000000002 1.5000000000000002 1.5000000000000002 1.0000000180025095e-35
decision_type=2 2 2 2 2 2 2 2 2 2
left_child=2 -2 5 4 -3 7 -5 -1 -4 -7
right_child=1 3 8 6 -6 9 -8 -9 -10 -11
leaf_value=-0.018390617254283918 -0.068713233980987873 0 -0.0099194965412811378 0 -0.051134484921946048 0 0.034965363003975687 0.0069439494052647016 0 0.033337145334706858
leaf_weight=23.437378365546465 87.095699690282345 103.15371270477772 51.036696538329124 18.847651787102222 38.157956916838884 86.574983082711697 40.226529769599438 55.718567349016666 59.224471144378185 223.5099021345377
leaf_count=194 1092 757 266 114 398 385 234 362 280 989
internal_value=0 -0.0287424 0.0122877 -0.000576612 -0.0196114 0.0223547 0.0123443 0 -0.00567387 0.0282924
internal_weight=0 287.482 499.502 200.386 141.312 389.241 59.0742 79.1559 110.261 310.085
internal_count=5071 2595 2476 1503 1155 1930 348 556 546 1374
is_linear=0
shrinkage=0.2


Tree=16
num_leaves=7
num_cat=0
split_feature=13 13 5 7 7 7
split_gain=43.3748 3.59831 1.67778 2.72096 0.0613369 0.0668828
threshold=1.0000000180025095e-35 1.5000000000000002 1.0000000180025095e-35 1.0000000180025095e-35 1.0000000180025095e-35 1.5000000000000002
decision_type=2 2 2 2 2 2
left_child=2 -2 4 -4 -1 -6
right_child=1 -3 3 -5 5 -7
leaf_value=0 -0.027396536690167939 -0.11712046554825853 0.049468349217390288 0 0.017493394379325119 0
leaf_weight=193.80682980269194 122.02119367942214 96.221407614648342 224.57858069986105 55.82007397711277 42.543981418013573 45.484672009944916
leaf_count=859 1044 1263 1013 313 342 237
internal_value=0 -0.0774719 0.0263979 0.0398389 0.00573089 0.0112977
internal_weight=0 218.243 562.234 280.399 281.835 88.0287
internal_count=5071 2307 2764 1326 1438 579
is_linear=0
shrinkage=0.2


Tree=17
num_leaves=10
num_cat=0
split_feature=13 17 16 3 17 13 16 1 5
split_gain=31.6801 11.3504 3.10818 1.65952 1.21753 0.464222 0.30554 0.294798 0.130554
threshold=1.0000000180025095e-35 1.0000000180025095e-35 1.5000000000000002 1.0000000180025095e-35 1.5000000000000002 1.5000000000000002 1.0000000180025095e-35 1.0000000180025095e-35 1.0000000180025095e-35
decision_type=2 2 2 2 2 2 2 2 2
left_child=2 5 3 4 6 -2 -1 8 -4
right_child=1 -3 7 -5 -6 -7 -8 -9 -10
leaf_value=0 0 -0.10718750880769275 -0.022451275370429357 0 0.0039679638397434767 -0.021704825312970431 0.052844669542474965 0.0020886946055583811 0
leaf_weight=28.810771249234676 52.411021761596203 120.4939621090889 28.390937559306622 81.239057831466198 152.31282955408096 34.416093252599239 184.27208504080772 36.954839289188385 51.218328818678856
leaf_count=151 357 1569 161 429 698 381 911 159 255
internal_value=0 -0.0682085 0.022175 0.0298985 0.0356259 0 0.0486579 0 -0.0117135
internal_weight=0 207.321 563.199 446.635 365.396 86.8271 213.083 116.564 79.6093
internal_count=5071 2307 2764 2189 1760 738 1062 575 416
is_linear=0
shrinkage=0.2


Tree=18
num_leaves=6
num_cat=0
split_feature=13 11 13 3 0
split_gain=22.4831 4.59312 4.39287 2.45723 1.06157
threshold=1.5000000000000002 1.5000000000000002 1.0000000180025095e-35 1.0000000180025095e-35 1.0000000180025095e-35
decision_type=2 2 2 2 2
left_child=1 2 4 -3 -1
right_child=-2 3 -4 -5 -6
leaf_value=0.016842785823628508 -0.09710322743010398 0.041379277302958602 -0.054862295665613126 0 0
leaf_weight=179.41984631866217 82.225332096219063 204.60002965852618 50.105800360441208 58.788817327469587 185.82089272886515
leaf_count=913 1263 1054 557 344 940
internal_value=0 0.0106033 0 0.0311604 0.00515879
internal_weight=0 678.735 415.347 263.389 365.241
internal_count=5071 3808 2410 1398 1853
is_linear=0
shrinkage=0.2


Tree=19
num_leaves=7
num_cat=0
split_feature=7 3 15 15 15 10
split_gain=3.32863 2.44086 1.1429 0.876865 0.0448587 9.96846e-06
threshold=1.0000000180025095e-35 1.0000000180025095e-35 1.5000000000000002 2.5000000000000004 1.0000000180025095e-35 1.5000000000000002
decision_type=2 2 2 2 2 2
left_child=2 5 4 -4 -1 -2
right_child=1 -3 3 -5 -6 -7
leaf_value=0 -5.4235310525614335e-05 -0.048751030585930534 0.019907935459041029 0 -0.0047715913803158391 0
leaf_weight=76.228589843958616 130.55760533735156 80.233237378299236 270.02466055005789 79.253411810845137 73.809766661375761 44.145780332386494
leaf_count=456 1069 992 1266 376 425 487
internal_value=0 -0.0200923 0.00747895 0.0144452 0 0
internal_weight=0 254.937 499.316 349.278 150.038 174.703
internal_count=5071 2548 2523 1642 881 1556
is_linear=0
shrinkage=0.2


Tree=20
num_leaves=8
num_cat=0
split_feature=13 11 6 11 16 13 16
split_gain=15.4359 5.76487 2.75194 1.10952 2.62345 0.765725 0.0430091
threshold=1.0000000180025095e-35 1.5000000000000002 1.0000000180025095e-35 1.0000000180025095e-35 1.5000000000000002 1.5000000000000002 1.5000000000000002
decision_type=2 2 2 2 2 2 2
left_child=2 -2 6 -4 -5 -3 -1
right_child=1 5 3 4 -6 -7 -8
leaf_value=0 -0.092638836644830802 0 0 0.048970683895848181 0 -0.025463012328753854 -0.0072543429987206101
leaf_weight=152.72685952484608 80.202453974634409 65.628530945628881 177.29092638194561 151.88257874548435 53.402401745319366 42.240336269140244 27.690666757524014
leaf_count=712 1245 487 803 834 249 575 166
internal_value=0 -0.0509202 0.0143417 0.024196 0.0359178 0 0
internal_weight=0 188.071 562.993 382.576 205.285 107.869 180.418
internal_count=5071 2307 2764 1886 1083 1062 878
is_linear=0
shrinkage=0.2


Tree=21
num_leaves=8
num_cat=0
split_feature=12 5 16 16 6 3 6
split_gain=3.72469 5.24159 1.62696 2.5599 0.5304 0.24068 0.13093
threshold=1.5000000000000002 1.0000000180025095e-35 1.0000000180025095e-35 1.5000000000000002 1.0000000180025095e-35 1.0000000180025095e-35 1.0000000180025095e-35
decision_type=2 2 2 2 2 2 2
left_child=2 4 -1 5 -2 -4 -3
right_child=1 6 3 -5 -6 -7 -8
leaf_value=-0.051230614408998322 -0.029234413953355898 0 0.0062260182324593155 -0.034673007356413536 0 0 0.042404454975865355
leaf_weight=49.472747389227152 28.779004782438278 52.872984036803246 243.35872065275908 83.700121503323317 75.995837777853012 63.530311971902847 147.43829533085227
leaf_count=734 234 498 1250 675 389 424 867
internal_value=0 0.0146836 -0.0135844 -0.00327419 -0.00834972 0 0.0361879
internal_weight=0 305.086 440.062 390.589 104.775 306.889 200.311
internal_count=5071 1988 3083 2349 623 1674 1365
is_linear=0
shrinkage=0.2


Tree=22
num_leaves=6
num_cat=0
split_feature=1 14 11 3 7
split_gain=2.38005 2.02611 0.264608 0.511179 0.104971
threshold=1.0000000180025095e-35 1.0000000180025095e-35 1.5000000000000002 1.0000000180025095e-35 1.0000000180025095e-35
decision_type=2 2 2 2 2
left_child=1 -1 4 -4 -3
right_child=-2 2 3 -5 -6
leaf_value=-0.024017386580445464 0.019075450550807876 0 0.014318655555353173 0 -0.010340187088199733
leaf_weight=202.09476298838854 151.06170754879713 144.70868479833007 127.68303893506527 47.309108603745699 70.076675221323967
leaf_count=1826 811 696 755 353 630
internal_value=0 -0.00802252 0 0.00612659 -0.00417354
internal_weight=0 591.872 389.778 174.992 214.785
internal_count=5071 4260 2434 1108 1326
is_linear=0
shrinkage=0.2


Tree=23
num_leaves=6
num_cat=0
split_feature=13 6 11 1 13
split_gain=11.507 1.61303 1.34481 0.488215 0.189492
threshold=1.5000000000000002 1.0000000180025095e-35 1.5000000000000002 1.0000000180025095e-35 1.0000000180025095e-35
decision_type=2 2 2 2 2
left_child=1 3 4 -1 -3
right_child=-2 2 -4 -5 -6
leaf_value=-0.010132615104054806 -0.076008620310223665 0.0050861706000892761 0.026317564763476704 0 -0.0072637365065898575
leaf_weight=189.80564328283072 70.393106000497937 225.94727867096663 200.82075387239456 28.476400837302208 25.424603413790464
leaf_count=1145 1263 1180 992 150 341
internal_value=0 0.0060486 0.0139336 -0.00145407 0
internal_weight=0 670.475 452.193 218.282 251.372
internal_count=5071 3808 2513 1295 1521
is_linear=0
shrinkage=0.2


Tree=24
num_leaves=5
num_cat=0
split_feature=12 5 1 2
split_gain=1.97686 3.71328 1.94376 0.122564
threshold=1.5000000000000002 1.0000000180025095e-35 1.0000000180025095e-35 1.0000000180025095e-35
decision_type=2 2 2 2
left_child=2 -2 -1 -4
right_child=1 -3 3 -5
leaf_value=-0.018494012379813143 -0.0081215658670569877 0.029028750270599663 0.010648114432595059 0
leaf_weight=360.46354752592742 103.6691331975162 199.7710279058665 43.842037014663219 28.289524149149656
leaf_count=2698 623 1365 219 166
internal_value=0 0.010056 -0.0104606 0.00286991
internal_weight=0 303.44 432.595 72.1316
internal_count=5071 1988 3083 385
is_linear=0
shrinkage=0.2


Tree=25
num_leaves=8
num_cat=0
split_feature=6 1 11 9 7 17 5
split_gain=1.05361 1.7976 1.23692 1.68375 0.525569 0.327758 0.0945707
threshold=1.0000000180025095e-35 1.0000000180025095e-35 1.5000000000000002 1.0000000180025095e-35 1.5000000000000002 1.5000000000000002 1.5000000000000002
decision_type=2 2 2 2 2 2 2
left_child=1 -1 3 4 -2 -5 -4
right_child=2 -3 6 5 -6 -7 -8
leaf_value=-0.022357887480286869 0.015069527458107128 0 0 -0.025949851528166368 0 0 0.019413435249842063
leaf_weight=210.9087123516947 118.23272072523832 31.053720097988844 71.252286698669195 104.14557544142008 23.597707219421864 23.591028388589621 152.55806461721659
leaf_count=1594 548 189 369 1245 129 117 880
internal_value=0 -0.0120775 0.00350454 0 0.006886 -0.0213294 0.015588
internal_weight=0 241.962 493.377 269.567 141.83 127.737 223.81
internal_count=5071 1783 3288 2039 677 1362 1249
is_linear=0
shrinkage=0.2


Tree=26
num_leaves=7
num_cat=0
split_feature=16 0 16 11 6 15
split_gain=1.19667 1.51943 1.41941 1.49219 0.086318 0.0381872
threshold=1.5000000000000002 1.0000000180025095e-35 1.0000000180025095e-35 1.5000000000000002 1.0000000180025095e-35 2.5000000000000004
decision_type=2 2 2 2 2 2
left_child=2 -2 3 -1 -5 -4
right_child=1 -3 5 4 -6 -7
leaf_value=-0.037762735059364561 0 -0.034334742250231802 0.013638855508305537 0 0.0066412719835858601 0
leaf_weight=41.864158593118191 84.763189621269703 81.526012994349003 305.736971385777 24.600802704691887 73.281417086720467 119.92442436143756
leaf_count=731 590 563 1525 373 544 745
internal_value=0 -0.0155139 0.00341201 -0.00702421 0 0.0114312
internal_weight=0 166.289 565.408 139.746 97.8822 425.661
internal_count=5071 1153 3918 1648 917 2270
is_linear=0
shrinkage=0.2


Tree=27
num_leaves=8
num_cat=0
split_feature=16 1 7 16 10 10 6
split_gain=0.725393 1.53785 1.07866 1.28425 0.647316 0.6352 0.0583801
threshold=1.5000000000000002 1.0000000180025095e-35 1.0000000180025095e-35 1.0000000180025095e-35 1.5000000000000002 1.5000000000000002 1.0000000180025095e-35
decision_type=2 2 2 2 2 2 2
left_child=2 4 5 -4 -2 -1 -7
right_child=1 -3 3 -5 -6 6 -8
leaf_value=0.014993101177942681 -0.03589296457116322 0 -0.027746046291429641 0 0 -0.0074337845067621415 0
leaf_weight=299.67737221345305 82.970387166365981 44.397945117205381 65.825342737138271 120.39674649015069 37.898968184366822 37.257630493491888 41.259086411446333
leaf_count=1435 627 206 1090 881 320 258 254
internal_value=0 -0.0123396 0.00232939 -0.00406164 -0.026357 0.0106032 0
internal_weight=0 165.267 564.416 186.222 120.869 378.194 78.5167
internal_count=5071 1153 3918 1971 947 1947 512
is_linear=0
shrinkage=0.2


Tree=28
num_leaves=5
num_cat=0
split_feature=13 13 0 17
split_gain=7.3123 0.910765 0.891937 0.573963
threshold=1.5000000000000002 1.0000000180025095e-35 1.0000000180025095e-35 1.0000000180025095e-35
decision_type=2 2 2 2
left_child=1 2 -1 -3
right_child=-2 3 -4 -5
leaf_value=0.018175992544402633 -0.062688838842484773 0 0 -0.019722127772579576
leaf_weight=274.60411549732089 64.27118537761271 53.873827427625656 280.01070207357407 54.025093637406826
leaf_count=1367 1263 357 1397 687
internal_value=0 0.00550973 0.0100653 0
internal_weight=0 662.514 554.615 107.899
internal_count=5071 3808 2764 1044
is_linear=0
shrinkage=0.2


Tree=29
num_leaves=5
num_cat=0
split_feature=13 13 3 14
split_gain=5.11513 0.645229 0.508475 0.00458246
threshold=1.5000000000000002 1.0000000180025095e-35 1.0000000180025095e-35 1.0000000180025095e-35
decision_type=2 2 2 2
left_child=1 2 -1 -3
right_child=-2 3 -4 -5
leaf_value=0.011353043029124465 -0.053987601365621064 -0.0021137359126161374 0 0
leaf_weight=450.16202024370432 60.903689786791801 36.025809641927481 104.98280800133944 71.061396811157465
leaf_count=2193 1263 458 571 586
internal_value=0 0.00433148 0.0082719 0
internal_weight=0 662.232 555.145 107.087
internal_count=5071 3808 2764 1044
is_linear=0
shrinkage=0.2


Tree=30
num_leaves=6
num_cat=0
split_feature=5 17 17 14 1
split_gain=0.493754 0.935647 0.259506 0.174767 0.0402189
threshold=1.0000000180025095e-35 1.0000000180025095e-35 1.5000000000000002 1.0000000180025095e-35 1.0000000180025095e-35
decision_type=2 2 2 2 2
left_child=2 3 -1 -2 -3
right_child=1 4 -4 -5 -6
leaf_value=-0.011607314246437938 0 -0.0031758292436959222 0 0.017639937605242163 0
leaf_weight=186.94450281187892 34.615851521492004 154.50553759932518 154.0396675132215 151.46348997578025 39.087369773536921
leaf_count=1472 260 1274 935 902 228
internal_value=0 0.00333163 -0.00668903 0.014772 0
internal_weight=0 379.672 340.984 186.079 193.593
internal_count=5071 2664 2407 1162 1502
is_linear=0
shrinkage=0.2


Tree=31
num_leaves=9
num_cat=0
split_feature=16 1 3 11 15 7 5 11
split_gain=0.440375 1.06746 0.622237 1.14457 0.263157 1.12582 0.0336548 0.0129911
threshold=1.5000000000000002 1.0000000180025095e-35 1.0000000180025095e-35 1.0000000180025095e-35 1.5000000000000002 1.5000000000000002 1.0000000180025095e-35 1.0000000180025095e-35
decision_type=2 2 2 2 2 2 2 2
left_child=2 -2 3 6 -5 -6 -1 -4
right_child=1 -3 7 4 5 -7 -8 -9
leaf_value=-0.003204122208556503 -0.021938718254138709 0 0 0 0.031776355215388977 0 0 -0.006543259365160251
leaf_weight=126.12611746974289 118.76209331676364 44.371407568454742 53.367291009053588 68.324575241655111 118.1589890383184 19.620057279244065 103.07817807421088 68.313862087205052
leaf_count=618 947 206 374 655 732 148 598 793
internal_value=0 -0.0100166 0.00115196 0.00722998 0.0180527 0.0235707 0 -0.00454706
internal_weight=0 163.134 556.989 435.308 206.104 137.779 229.204 121.681
internal_count=5071 1153 3918 2751 1535 880 1216 1167
is_linear=0
shrinkage=0.2


Tree=32
num_leaves=7
num_cat=0
split_feature=6 4 8 8 2 14
split_gain=0.335477 1.4062 0.665321 0.33444 0.099605 0.0773406
threshold=1.0000000180025095e-35 1.0000000180025095e-35 1.5000000000000002 1.5000000000000002 1.0000000180025095e-35 1.0000000180025095e-35
decision_type=2 2 2 2 2 2
left_child=1 -1 4 -3 -2 -4
right_child=2 3 5 -5 -6 -7
leaf_value=0 0 0 0 -0.036691097183263403 -0.0055002912101205616 0.015147123885694468
leaf_weight=72.266662441194057 200.04557855427265 107.42751710675657 28.469609599560499 56.06365105509758 126.6951650660485 128.13177861645818
leaf_count=499 1289 682 200 602 1050 749
internal_value=0 -0.00722865 0.00131049 -0.0202114 0 0.0130335
internal_weight=0 235.758 483.342 163.491 326.741 156.601
internal_count=5071 1783 3288 1284 2339 949
is_linear=0
shrinkage=0.2


Tree=33
num_leaves=4
num_cat=0
split_feature=13 5 5
split_gain=3.55194 1.05493 0.151378
threshold=1.0000000180025095e-35 1.5000000000000002 1.0000000180025095e-35
decision_type=2 2 2
left_child=2 -2 -1
right_child=1 -3 -4
leaf_value=0 -0.044775045595587738 0 0.01011198294759235
leaf_weight=278.44595739990473 75.638492316007614 88.688734617084265 275.34127696603537
leaf_count=1438 1193 1114 1326
internal_value=0 -0.026562 0.00636108
internal_weight=0 164.327 553.787
internal_count=5071 2307 2764
is_linear=0
shrinkage=0.2


Tree=34
num_leaves=4
num_cat=0
split_feature=12 5 5
split_gain=0.824434 2.06595 0.164733
threshold=1.5000000000000002 1.0000000180025095e-35 1.5000000000000002
decision_type=2 2 2
left_child=2 -2 -1
right_child=1 -3 -4
leaf_value=0 -0.0036343052905570628 0.021703687071801918 -0.013421723396238185
leaf_weight=279.99669679440558 100.37490324676037 196.43284161761403 138.92917843349278
leaf_count=2060 623 1365 1023
internal_value=0 0.00672239 -0.00675408
internal_weight=0 296.808 418.926
internal_count=5071 1988 3083
is_linear=0
shrinkage=0.2


Tree=35
num_leaves=7
num_cat=0
split_feature=13 13 6 3 11 11
split_gain=3.0793 0.271919 0.275288 0.343752 0.583783 0.0535281
threshold=1.5000000000000002 1.0000000180025095e-35 1.0000000180025095e-35 1.0000000180025095e-35 1.0000000180025095e-35 1.5000000000000002
decision_type=2 2 2 2 2 2
left_child=1 2 -1 4 -4 -3
right_child=-2 5 3 -5 -6 -7
leaf_value=0 -0.043888116024474039 -0.0069475784035024002 0 0 0.019486303523435805 0
leaf_weight=177.25097815692425 57.219033714383841 39.358266392722726 150.8525278121233 66.65334490686655 159.11606696993113 65.951331995427608
leaf_count=878 1263 557 692 356 838 487
internal_value=0 0.00223839 0.00504148 0.00812872 0.0111227 0
internal_weight=0 659.183 553.873 376.622 309.969 105.31
internal_count=5071 3808 2764 1886 1530 1044
is_linear=0
shrinkage=0.2


end of trees

feature_importances:
Column_16=29
Column_6=25
Column_13=22
Column_11=18
Column_15=17
Column_1=15
Column_3=15
Column_5=14
Column_17=13
Column_14=12
Column_7=11
Column_8=10
Column_10=10
Column_2=7
Column_12=7
Column_18=6
Column_9=5
Column_0=4
Column_4=1

parameters:
[boosting: gbdt]
[objective: binary]
[metric: auc,binary_logloss]
[tree_learner: serial]
[device_type: cpu]
[data_sample_strategy: bagging]
[data: ]
[valid: ]
[num_iterations: 12749]
[learning_rate: 0.2]
[num_leaves: 921]
[num_threads: 8]
[seed: 2024]
[deterministic: 0]
[force_col_wise: 0]
[force_row_wise: 0]
[histogram_pool_size: -1]
[max_depth: 56]
[min_data_in_leaf: 85]
[min_sum_hessian_in_leaf: 0.001]
[bagging_fraction: 1]
[pos_bagging_fraction: 1]
[neg_bagging_fraction: 1]
[bagging_freq: 0]
[bagging_seed: 4542]
[feature_fraction: 0.43]
[feature_fraction_bynode: 1]
[feature_fraction_seed: 13336]
[extra_trees: 0]
[extra_seed: 29642]
[early_stopping_round: 0]
[early_stopping_min_delta: 0]
[first_metric_only: 0]
[max_delta_step: 0]
[lambda_l1: 9.8]
[lambda_l2: 5]
[linear_lambda: 0]
[min_gain_to_split: 0]
[drop_rate: 0.1]
[max_drop: 50]
[skip_drop: 0.5]
[xgboost_dart_mode: 0]
[uniform_drop: 0]
[drop_seed: 2449]
[top_rate: 0.2]
[other_rate: 0.1]
[min_data_per_group: 59]
[max_cat_threshold: 32]
[cat_l2: 17]
[cat_smooth: 92]
[max_cat_to_onehot: 4]
[top_k: 20]
[monotone_constraints: ]
[monotone_constraints_method: basic]
[monotone_penalty: 0]
[feature_contri: ]
[forcedsplits_filename: ]
[refit_decay_rate: 0.9]
[cegb_tradeoff: 1]
[cegb_penalty_split: 0]
[cegb_penalty_feature_lazy: ]
[cegb_penalty_feature_coupled: ]
[path_smooth: 0]
[interaction_constraints: ]
[verbosity: -1]
[saved_feature_importance_type: 0]
[use_quantized_grad: 0]
[num_grad_quant_bins: 4]
[quant_train_renew_leaf: 0]
[stochastic_rounding: 1]
[linear_tree: 0]
[max_bin: 255]
[max_bin_by_feature: ]
[min_data_in_bin: 3]
[bin_construct_sample_cnt: 200000]
[data_random_seed: 6648]
[is_enable_sparse: 1]
[enable_bundle: 1]
[use_missing: 1]
[zero_as_missing: 0]
[feature_pre_filter: 1]
[pre_partition: 0]
[two_round: 0]
[header: 0]
[label_column: ]
[weight_column: ]
[group_column: ]
[ignore_column: ]
[categorical_feature: ]
[forcedbins_filename: ]
[precise_float_parser: 0]
[parser_config_file: ]
[objective_seed: 12337]
[num_class: 1]
[is_unbalance: 0]
[scale_pos_weight: 1]
[sigmoid: 1]
[boost_from_average: 1]
[reg_sqrt: 0]
[alpha: 0.9]
[fair_c: 1]
[poisson_max_delta_step: 0.7]
[tweedie_variance_power: 1.5]
[lambdarank_truncation_level: 30]
[lambdarank_norm: 1]
[label_gain: ]
[lambdarank_position_bias_regularization: 0]
[eval_at: ]
[multi_error_top_k: 1]
[auc_mu_weights: ]
[num_machines: 1]
[local_listen_port: 12400]
[time_out: 120]
[machine_list_filename: ]
[machines: ]
[gpu_platform_id: -1]
[gpu_device_id: -1]
[gpu_use_dp: 0]
[num_gpu: 1]

end of parameters

pandas_categorical:null
